Language model created by QuickLM on Mon Jul 25 17:06:56 EDT 2016
Copyright (c) 1996-2010 Carnegie Mellon University and Alexander I. Rudnicky

The model is in standard ARPA format, designed by Doug Paul while he was at MITRE.

The code that was used to produce this language model is available in Open Source.
Please visit http://www.speech.cs.cmu.edu/tools/ for more information

The (fixed) discount mass is 0.5. The backoffs are computed using the ratio method.
This model based on a corpus of 13 sentences and 27 words

\data\
ngram 1=27
ngram 2=41
ngram 3=34

\1-grams:
-0.9795 </s> -0.3010
-0.9795 <s> -0.2490
-2.0934 ARE -0.2940
-1.7924 ARM -0.2529
-1.7924 BEGIN -0.2795
-2.0934 CAN -0.2940
-2.0934 CLOSE -0.2868
-2.0934 END -0.2832
-2.0934 EXPERIMENT -0.2529
-2.0934 FINISH -0.2832
-2.0934 GO -0.2832
-1.7924 HAND -0.2529
-2.0934 HEAR -0.2975
-2.0934 HELLO -0.2975
-1.3945 HERE -0.2529
-2.0934 HOLD -0.2868
-2.0934 HOW -0.2975
-2.0934 LET'S -0.2940
-2.0934 ME? -0.2529
-2.0934 OPEN -0.2868
-2.0934 POLI! -0.2529
-2.0934 RELEASE -0.2868
-2.0934 START -0.2832
-2.0934 THE -0.2975
-2.0934 TODAY? -0.2529
-1.7924 YOU -0.2940
-1.4914 YOUR -0.2868

\2-grams:
-1.4150 <s> BEGIN -0.1761
-1.4150 <s> CAN 0.0000
-1.4150 <s> CLOSE 0.0000
-1.4150 <s> END 0.0000
-1.4150 <s> FINISH 0.0000
-1.4150 <s> GO 0.0000
-1.4150 <s> HELLO 0.0000
-1.4150 <s> HOLD 0.0000
-1.4150 <s> HOW 0.0000
-1.4150 <s> LET'S 0.0000
-1.4150 <s> OPEN 0.0000
-1.4150 <s> RELEASE 0.0000
-1.4150 <s> START 0.0000
-0.3010 ARE YOU -0.1761
-0.3010 ARM </s> -0.3010
-0.6021 BEGIN HERE 0.0000
-0.6021 BEGIN THE 0.0000
-0.3010 CAN YOU -0.1761
-0.3010 CLOSE YOUR -0.1761
-0.3010 END HERE 0.0000
-0.3010 EXPERIMENT </s> -0.3010
-0.3010 FINISH HERE 0.0000
-0.3010 GO HERE 0.0000
-0.3010 HAND </s> -0.3010
-0.3010 HEAR ME? 0.0000
-0.3010 HELLO POLI! 0.0000
-0.3010 HERE </s> -0.3010
-0.3010 HOLD YOUR -0.1761
-0.3010 HOW ARE 0.0000
-0.3010 LET'S BEGIN -0.1761
-0.3010 ME? </s> -0.3010
-0.3010 OPEN YOUR -0.1761
-0.3010 POLI! </s> -0.3010
-0.3010 RELEASE YOUR -0.1761
-0.3010 START HERE 0.0000
-0.3010 THE EXPERIMENT 0.0000
-0.3010 TODAY? </s> -0.3010
-0.6021 YOU HEAR 0.0000
-0.6021 YOU TODAY? 0.0000
-0.6021 YOUR ARM 0.0000
-0.6021 YOUR HAND 0.0000

\3-grams:
-0.3010 <s> BEGIN HERE
-0.3010 <s> CAN YOU
-0.3010 <s> CLOSE YOUR
-0.3010 <s> END HERE
-0.3010 <s> FINISH HERE
-0.3010 <s> GO HERE
-0.3010 <s> HELLO POLI!
-0.3010 <s> HOLD YOUR
-0.3010 <s> HOW ARE
-0.3010 <s> LET'S BEGIN
-0.3010 <s> OPEN YOUR
-0.3010 <s> RELEASE YOUR
-0.3010 <s> START HERE
-0.3010 ARE YOU TODAY?
-0.3010 BEGIN HERE </s>
-0.3010 BEGIN THE EXPERIMENT
-0.3010 CAN YOU HEAR
-0.3010 CLOSE YOUR HAND
-0.3010 END HERE </s>
-0.3010 FINISH HERE </s>
-0.3010 GO HERE </s>
-0.3010 HEAR ME? </s>
-0.3010 HELLO POLI! </s>
-0.3010 HOLD YOUR ARM
-0.3010 HOW ARE YOU
-0.3010 LET'S BEGIN THE
-0.3010 OPEN YOUR HAND
-0.3010 RELEASE YOUR ARM
-0.3010 START HERE </s>
-0.3010 THE EXPERIMENT </s>
-0.3010 YOU HEAR ME?
-0.3010 YOU TODAY? </s>
-0.3010 YOUR ARM </s>
-0.3010 YOUR HAND </s>

\end\
